solver_type L2R_L2LOSS_SVC_DUAL
nr_class 2
label 1 -1
nr_feature 66
bias 1
w
-0.4471786649541049 
-0.9325601237203547 
-0.7911097847628122 
0 
-0.4471786649541049 
0.9325601237203547 
-0.397263105965426 
-0.8230644093957318 
-0.6628838216209328 
0 
-0.397263105965426 
0.8230644093957318 
0.1570244603311284 
-0.2327455871536034 
0.2442582110932351 
0 
0.1570244603311284 
0.2327455871536034 
0.3649104219755314 
-0.01946953085542918 
0.5778647765869561 
0 
0.3649104219755314 
0.01946953085542918 
-0.3275205678025278 
-0.8883395664292089 
-0.667577418609503 
0 
-0.3275205678025278 
0.8883395664292089 
1.482570915643359 
1.162913265641393 
2.400562039032905 
0 
1.482570915643359 
-1.162913265641393 
0.3028996297764544 
-0.1036185458013657 
0.4615062498977918 
0 
0.3028996297764544 
0.1036185458013657 
-0.3458643077136984 
-0.8602241188117086 
-0.6558376721251779 
0 
-0.3458643077136984 
0.8602241188117086 
0.2834115019250254 
-0.1082928431221588 
0.4428163847964593 
0 
0.2834115019250254 
0.1082928431221588 
-0.4366484226472898 
-1.013775022947159 
-0.8550077425324061 
0 
-0.4366484226472898 
1.013775022947159 
-0.2070293579141081 
-0.8602682542186717 
-0.5664724499745752 
0 
-0.2070293579141081 
0.8602682542186717 
0 
