solver_type L2R_L2LOSS_SVC_DUAL
nr_class 2
label 1 -1
nr_feature 90
bias 1
w
-0.5006030365448607 
-0.8424897587397252 
-0.8676823196611336 
0 
-0.5006030365448607 
0.8424897587397252 
-0.4841718647019056 
-0.7747540481973756 
-0.7992788298649235 
0 
-0.4841718647019056 
0.7747540481973756 
0.04907553396790901 
-0.2066775500409871 
0.07356344857049088 
0 
0.04907553396790901 
0.2066775500409871 
0.2311805786347216 
-0.01918869438484412 
0.3663309534800526 
0 
0.2311805786347216 
0.01918869438484412 
-0.4157460165206512 
-0.8263154131847662 
-0.7932505338196842 
0 
-0.4157460165206512 
0.8263154131847662 
1.260930810900749 
1.072431066011408 
2.047562047693772 
0 
1.260930810900749 
-1.072431066011408 
0.2068011634545664 
-0.06318317274343929 
0.3116328501349057 
0 
0.2068011634545664 
0.06318317274343929 
-0.3730890454831993 
-0.7365341805042435 
-0.6847072495543105 
0 
-0.3730890454831993 
0.7365341805042435 
0.1993369347895546 
-0.05469487797614491 
0.3129163673558751 
0 
0.1993369347895546 
0.05469487797614491 
-0.4822041653496019 
-0.9049845133254411 
-0.9096414380585317 
0 
-0.4822041653496019 
0.9049845133254411 
-0.2862838417496059 
-0.7811311134570135 
-0.6700719519015502 
0 
-0.2862838417496059 
0.7811311134570135 
0.2505306231869403 
0 
0.3968501928225772 
0 
0.2505306231869403 
0 
0.2505306231869403 
0 
0.3968501928225772 
0 
0.2505306231869403 
0 
0.2505306231869403 
0 
0.3968501928225772 
0 
0.2505306231869403 
0 
0.2505306231869403 
0 
0.3968501928225772 
0 
0.2505306231869403 
0 
0 
